/*!
 * The following copyright notice may not be removed under any circumstances.
 * 
 * Copyright:
 * Copyright (c) 2001 Nick Curtis. All Rights Reserved.
 */
Cufon.registerFont({"w":829,"face":{"font-family":"MinstrelPosterWHG","font-weight":400,"font-stretch":"normal","units-per-em":"1000","panose-1":"0 0 4 0 0 0 0 0 0 0","ascent":"800","descent":"-200","x-height":"23","bbox":"-180 -1111 1229 252","underline-thickness":"20","underline-position":"-123","unicode-range":"U+0020-U+203A"},"glyphs":{" ":{"w":200},"!":{"d":"328,-773r-47,535r-219,0r-46,-535r312,0xm172,-218v71,0,143,49,143,116v0,67,-72,116,-143,116v-72,0,-144,-49,-144,-116v0,-67,72,-116,144,-116","w":343},"\"":{"d":"344,-799r-24,209r-109,0r-23,-209r156,0xm174,-799r-24,209r-109,0r-23,-209r156,0","w":361},"#":{"d":"599,-237r-121,0r-23,125r-171,0r22,-125r-69,0r-22,125r-172,0r23,-125r-48,0r0,-172r79,0r12,-69r-91,0r0,-171r122,0r22,-125r171,0r-22,125r69,0r23,-125r171,0r-22,125r47,0r0,171r-78,0r-12,69r90,0r0,172xm349,-478r-69,0r-12,69r69,0","w":616},"$":{"d":"209,-268v-88,-35,-160,-158,-159,-280v0,-56,13,-106,39,-151r120,0r0,-72r223,0r0,72r187,0r0,195r-187,0r0,3v85,35,156,158,155,278v0,53,-13,104,-39,152r-116,0r0,71r-223,0r0,-71r-192,0r0,-195r192,0r0,-2","w":635},"&":{"d":"770,-75r-207,127r-61,-62v-122,63,-290,42,-384,-40v-64,-56,-99,-125,-101,-212v-2,-71,17,-133,57,-184r-38,-39r0,-286r608,0r0,197r-367,0r198,201v0,-30,-7,-58,-20,-84r223,-41v35,108,24,215,-17,312xm318,-198r-78,-79v-4,51,34,71,78,79","w":787},"'":{"d":"177,-799r-24,209r-109,0r-23,-209r156,0","w":198},"(":{"d":"367,41r-259,100v-120,-306,-120,-667,0,-971r259,100v-93,249,-93,522,0,771","w":385},")":{"d":"17,41r259,100v121,-306,121,-667,0,-971r-259,100v95,249,95,522,0,771","w":385},"*":{"d":"421,-631r-68,39r67,39r-66,115r-67,-39r0,78r-133,0r0,-78r-67,38r-67,-114r67,-39r-67,-39r66,-115r68,39r0,-78r133,0r0,78r67,-39","w":441},",":{"d":"158,-218v71,0,144,49,144,116v0,91,-104,175,-195,172v-17,0,-32,-2,-47,-7r26,-64v-48,-23,-72,-57,-72,-101v-1,-67,73,-116,144,-116","w":316},"-":{"d":"278,-292r-264,0r0,-206r264,0r0,206","w":292},"\u2010":{"d":"278,-292r-264,0r0,-206r264,0r0,206","w":292},".":{"d":"158,-215v71,0,144,49,144,116v0,67,-73,116,-144,116v-71,0,-144,-49,-144,-116v0,-67,73,-116,144,-116","w":316},"\/":{"d":"579,-772r-365,903r-251,0r376,-903r240,0","w":585},"1":{"d":"353,0r-266,0r0,-532r-68,0r0,-239r334,0r0,771","w":372},"2":{"d":"538,-489v-2,116,-69,210,-152,251r157,0r0,238r-501,0v-17,-40,-25,-84,-25,-131v-1,-164,116,-348,238,-395r0,-5r-225,0r0,-240r225,0v151,-4,286,131,283,282","w":560},"3":{"d":"328,-771v129,-5,261,89,260,209v0,67,-33,122,-99,164v78,43,117,111,117,205v0,120,-102,193,-231,193r-359,0r0,-241r209,0v23,0,34,-11,34,-33v0,-23,-11,-34,-34,-34r-209,0r0,-153r203,0v19,0,29,-10,29,-29v0,-19,-10,-29,-29,-29r-203,0r0,-252r312,0","w":621},"4":{"d":"669,0r-265,0r0,-153r-391,0r159,-618r275,0r-108,395r65,0r0,-207r265,0r0,583","w":682},"5":{"d":"357,-502v135,-4,252,116,252,251v0,133,-120,251,-251,251r-342,0r0,-241r207,0v23,0,34,-11,34,-33v0,-23,-11,-34,-34,-34r-207,0r0,-463r522,0r0,240r-257,0r0,29r76,0","w":624},"6":{"d":"406,-532v158,0,310,116,310,266v0,150,-149,266,-306,266v-234,0,-400,-157,-393,-385v7,-223,181,-409,425,-384r0,203v-80,-14,-142,12,-187,68v49,-23,99,-34,151,-34xm406,-234v24,0,63,-11,62,-32v-2,-21,-35,-31,-62,-31v-26,0,-60,10,-62,31v-2,20,40,32,62,32","w":733},"7":{"d":"519,-771r-249,771r-265,0r201,-532r-181,0r0,-239r494,0","w":523},"8":{"d":"712,-193v0,65,-37,115,-109,154v-186,101,-589,53,-587,-154v0,-93,39,-162,117,-205v-65,-41,-98,-96,-98,-164v0,-68,35,-121,103,-163v118,-73,333,-73,452,0v68,42,103,95,103,163v0,68,-33,123,-98,164v78,43,117,112,117,205xm402,-526v0,-26,-13,-39,-38,-39v-26,0,-39,13,-39,39v0,27,13,40,39,40v25,0,38,-13,38,-40xm364,-182v30,0,53,-21,53,-50v0,-30,-23,-51,-53,-51v-32,0,-53,23,-53,51v0,29,23,50,53,50","w":728},"9":{"d":"323,-771v233,0,399,157,392,386v-7,211,-169,391,-387,385r-172,0r0,-202r172,0v63,0,112,-24,149,-71v-47,23,-97,34,-151,34v-158,0,-310,-116,-310,-266v0,-149,151,-266,307,-266xm264,-505v0,43,117,43,124,0v-4,-29,-68,-40,-100,-25v-15,7,-24,14,-24,25","w":731},":":{"d":"158,-505v71,0,144,49,144,116v0,67,-73,116,-144,116v-71,0,-144,-49,-144,-116v0,-67,73,-116,144,-116xm158,-215v71,0,144,49,144,116v0,67,-73,116,-144,116v-71,0,-144,-49,-144,-116v0,-67,73,-116,144,-116","w":316},";":{"d":"158,-505v71,0,144,49,144,116v0,67,-73,116,-144,116v-71,0,-144,-49,-144,-116v0,-67,73,-116,144,-116xm158,-218v71,0,144,49,144,116v0,91,-104,175,-195,172v-17,0,-32,-2,-47,-7r26,-64v-48,-23,-72,-57,-72,-101v-1,-67,73,-116,144,-116","w":316},"?":{"d":"324,-771v126,-4,236,113,236,239v0,131,-113,247,-253,238r0,56r-229,0v-15,-29,-23,-60,-23,-93v-2,-103,83,-192,179,-199r0,-2r-219,0r0,-239r309,0xm199,-218v71,0,144,49,144,116v0,67,-73,116,-144,116v-72,0,-144,-49,-144,-116v0,-67,72,-116,144,-116","w":574},"@":{"d":"16,-390v0,-219,199,-402,417,-402v204,0,369,106,410,270v35,139,-33,274,-144,299v-52,12,-102,6,-140,-20v-37,30,-79,45,-126,45v-103,0,-197,-88,-197,-192v0,-126,133,-230,266,-179r132,0r0,170v0,23,5,34,14,34v40,0,57,-39,56,-80v-4,-139,-126,-195,-271,-198v-139,-3,-268,113,-268,253v0,140,129,253,268,253v75,0,139,-25,191,-75r102,107v-81,78,-178,117,-293,117v-218,0,-417,-183,-417,-402xm433,-347v24,0,48,-18,48,-43v0,-25,-24,-43,-48,-43v-24,0,-48,18,-48,43v0,25,24,43,48,43","w":869},"A":{"d":"554,-481v-159,78,-254,251,-260,481r-279,0v9,-217,68,-395,177,-535v123,-157,289,-236,500,-236r122,0r0,771r-260,0r0,-37r-160,0r0,-260r160,0r0,-184"},"B":{"d":"445,-771v129,-5,260,89,259,209v0,68,-33,123,-98,164v78,43,117,112,117,205v0,120,-103,193,-232,193r-475,0r0,-771r429,0xm414,-526v0,-27,-13,-40,-40,-40r-87,0r0,80r87,0v27,0,40,-13,40,-40xm383,-187v26,1,45,-20,45,-45v0,-31,-15,-46,-45,-46r-96,0r0,91r96,0","w":739},"C":{"d":"657,1r-490,-1v-200,-210,-200,-561,0,-771r490,0r0,239r-325,0v-49,89,-50,207,1,294r324,0r0,239","w":673},"D":{"d":"346,-771v208,-6,386,178,386,386v0,207,-179,387,-386,386r-331,-1r0,-771r331,0xm490,-385v0,-79,-68,-146,-146,-146r-82,0r0,292r82,1v78,4,146,-69,146,-147","w":747},"E":{"d":"522,-288r-206,0r0,-194r206,0r0,194xm630,0r-615,0r0,-771r615,0r0,239r-350,0r0,294r350,0r0,238","w":644},"F":{"d":"476,-288r-159,0r0,-194r159,0r0,194xm584,-532r-303,0r0,532r-266,0r0,-771r569,0r0,239","w":598},"G":{"d":"748,0r-583,0v-199,-208,-199,-562,1,-771r582,0r0,239r-417,0v-51,92,-51,202,0,294r183,0r0,-49r-151,0r0,-196r385,0r0,483","w":764},"H":{"d":"645,0r-266,0r0,-395r-97,0r0,395r-266,0r0,-771r266,0r0,154r97,0r0,-154r266,0r0,771","w":660},"I":{"d":"282,0r-266,0r0,-771r266,0r0,771","w":297},"J":{"d":"540,-103v-139,112,-338,138,-525,69r0,-294v85,56,187,71,286,30r0,-473r239,0r0,668","w":554},"K":{"d":"739,-771r-194,264r183,507r-284,0r-90,-248r-81,110r0,138r-265,0r0,-771r265,0r0,209r154,-209r312,0","w":747},"L":{"d":"495,0r-480,0r0,-771r265,0r0,532r215,0r0,239","w":509},"M":{"d":"868,0r-268,0r0,-262r-159,300r-158,-300r0,262r-268,0r0,-771r265,0r161,263r162,-263r265,0r0,771","w":883},"N":{"d":"814,0r-260,0r0,-62v-26,-190,-131,-347,-279,-419r0,481r-260,0r0,-770r122,-1v164,-1,303,48,417,148r0,-148r260,0r0,771","w":828},"O":{"d":"460,-810v234,0,443,193,443,423v0,230,-209,423,-443,423v-234,0,-443,-193,-443,-423v0,-230,209,-423,443,-423xm460,-240v72,0,135,-60,135,-131v0,-71,-63,-131,-135,-131v-72,0,-135,60,-135,131v0,71,63,131,135,131","w":919},"P":{"d":"391,-771v212,-3,378,123,378,327v0,204,-166,330,-378,327r-113,0r0,117r-265,0r0,-771r378,0xm384,-361v52,1,97,-31,97,-83v0,-52,-45,-84,-97,-83r-106,0r0,166r106,0","w":781},"Q":{"d":"456,-810v234,0,443,193,443,423v0,81,-22,155,-66,222r67,67r-200,200r-91,-92v-49,17,-100,26,-153,26v-234,0,-443,-193,-443,-423v0,-230,209,-423,443,-423xm456,-240v72,0,135,-60,135,-131v0,-71,-63,-131,-135,-131v-72,0,-135,60,-135,131v0,71,63,131,135,131","w":913},"R":{"d":"477,-771v188,-3,335,108,335,290v0,89,-32,160,-95,213r167,180r-194,181r-263,-284r-154,0r0,191r-263,0r0,-771r467,0xm456,-421v38,0,69,-22,69,-60v0,-38,-31,-60,-69,-60r-183,0r0,120r183,0","w":894},"S":{"d":"258,-238v-111,-39,-205,-196,-203,-347v0,-69,16,-131,48,-186r467,0r0,239r-239,0v110,39,201,197,199,346v0,67,-16,129,-48,186r-467,0r0,-238r243,0","w":585},"T":{"d":"577,-532r-148,0r0,531r-266,0r0,-531r-148,0r0,-239r562,0r0,239","w":591},"U":{"d":"332,-248v28,0,53,-24,52,-52r0,-471r262,0r0,486v5,167,-147,313,-314,313v-168,0,-314,-145,-314,-313r0,-486r262,0r0,471v-1,29,23,52,52,52","w":663},"V":{"d":"616,-771r-155,772r-298,0r-155,-772r266,0r38,356r39,-356r265,0","w":624},"W":{"d":"993,-771r-164,771r-270,0r-59,-209r-59,209r-270,0r-164,-771r275,0r38,332r62,-332r236,0r62,332r39,-332r274,0","w":1000},"X":{"d":"687,0r-303,0r-39,-80r-39,80r-303,0r190,-395r-180,-376r302,0r30,61r29,-61r303,0r-181,376","w":690},"Y":{"d":"766,-771r-248,399r0,373r-265,0r0,-373r-248,-399r291,0r90,158r89,-158r291,0","w":771},"Z":{"d":"708,0r-685,0r279,-531r-287,0r0,-240r685,0r-279,533r287,0r0,238","w":723},"\\":{"d":"-37,-772r365,903r251,0r-376,-903r-240,0","w":585},"`":{"d":"428,-665r-160,0r-248,-206r260,0","w":448},"a":{"d":"460,-399v-132,65,-209,209,-215,399r-232,0v7,-179,56,-327,147,-444v102,-131,240,-196,415,-196r101,0r0,640r-216,0r0,-31r-132,0r0,-216r132,0r0,-152","w":702},"b":{"d":"370,-640v107,-4,216,74,215,174v0,56,-27,101,-82,136v65,36,97,93,97,170v0,99,-86,160,-192,160r-394,0r0,-640r356,0xm344,-437v0,-49,-63,-29,-105,-33r0,67v43,-4,105,16,105,-34xm356,-193v0,-25,-13,-38,-38,-38r-79,0r0,76v48,-4,117,17,117,-38","w":613},"c":{"d":"545,1r-406,-1v-167,-173,-167,-467,0,-640r406,0r0,198r-269,0v-41,74,-41,171,0,244r269,0r0,199","w":559},"d":{"d":"288,-640v171,-5,320,149,320,320v0,171,-149,322,-320,321r-275,-1r0,-640r275,0xm286,-198v65,2,121,-56,121,-122v0,-65,-56,-121,-121,-121r-68,0r0,243r68,0","w":620},"e":{"d":"434,-239r-171,0r0,-161r171,0r0,161xm523,0r-510,0r0,-640r510,0r0,198r-290,0r0,244r290,0r0,198","w":535},"f":{"d":"395,-239r-132,0r0,-161r132,0r0,161xm485,-442r-252,0r0,442r-221,0r0,-640r473,0r0,198","w":496},"g":{"d":"621,0r-484,0v-165,-172,-165,-467,0,-640r484,0r0,198r-347,0v-41,74,-41,171,0,244r152,0r0,-40r-125,0r0,-163r320,0r0,401","w":634},"h":{"d":"535,0r-221,0r0,-328r-80,0r0,328r-221,0r0,-640r221,0r0,128r80,0r0,-128r221,0r0,640","w":548},"i":{"d":"234,0r-220,0r0,-640r220,0r0,640","w":247},"j":{"d":"448,-85v-116,93,-280,115,-436,57r0,-244v73,46,154,59,238,25r0,-393r198,0r0,555","w":460},"k":{"d":"614,-640r-161,219r152,421r-236,0r-75,-206r-67,91r0,115r-220,0r0,-640r220,0r0,174r128,-174r259,0","w":620},"l":{"d":"411,0r-399,0r0,-640r220,0r0,442r179,0r0,198","w":422},"m":{"d":"721,0r-222,0r0,-217r-132,249r-131,-249r0,217r-223,0r0,-640r220,0r134,218r134,-218r220,0r0,640","w":733},"n":{"d":"675,0r-216,0r0,-51v-20,-158,-109,-288,-231,-348r0,399r-216,0r0,-639r101,-1v135,-1,251,40,346,123r0,-123r216,0r0,640","w":687},"o":{"d":"382,-672v194,0,367,160,367,351v0,191,-174,351,-367,351v-194,0,-368,-160,-368,-351v0,-191,174,-351,368,-351xm382,-199v59,0,112,-50,112,-109v0,-59,-53,-109,-112,-109v-59,0,-112,50,-112,109v0,59,53,109,112,109","w":763},"p":{"d":"324,-640v177,-3,314,101,314,271v0,170,-138,275,-314,272r-94,0r0,97r-220,0r0,-640r314,0xm318,-300v44,1,81,-25,81,-69v0,-44,-37,-69,-81,-68r-88,0r0,137r88,0","w":648},"q":{"d":"378,-672v194,0,368,160,368,351v0,67,-18,129,-55,184r56,56r-166,166r-76,-77v-247,90,-494,-97,-494,-329v0,-191,173,-351,367,-351xm378,-199v60,0,113,-50,113,-109v0,-59,-53,-109,-113,-109v-59,0,-112,50,-112,109v0,59,53,109,112,109","w":758},"r":{"d":"396,-640v155,-2,278,92,278,241v0,74,-26,133,-79,177r139,149r-161,150r-219,-236r-128,0r0,159r-218,0r0,-640r388,0xm436,-399v0,-33,-19,-50,-58,-50r-152,0r0,100r152,0v39,0,58,-17,58,-50","w":742},"s":{"d":"215,-198v-93,-32,-171,-162,-169,-288v0,-57,13,-109,40,-154r388,0r0,198r-199,0v133,49,221,288,126,442r-388,0r0,-198r202,0","w":486},"t":{"d":"479,-442r-123,0r0,441r-221,0r0,-441r-123,0r0,-198r467,0r0,198","w":491},"u":{"d":"275,-206v23,0,44,-20,43,-43r0,-391r218,0r0,403v4,139,-122,260,-261,260v-140,0,-260,-121,-260,-260r0,-403r217,0r0,391v-1,23,20,43,43,43","w":550},"v":{"d":"511,-640r-128,641r-248,0r-128,-641r221,0r31,296r33,-296r219,0","w":518},"w":{"d":"825,-640r-136,640r-224,0r-49,-173r-49,173r-224,0r-137,-640r229,0r31,276r52,-276r196,0r51,276r32,-276r228,0","w":830},"x":{"d":"571,0r-252,0r-32,-66r-32,66r-252,0r158,-328r-150,-312r251,0r25,51r24,-51r252,0r-151,312","w":573},"y":{"d":"636,-640r-206,331r0,310r-220,0r0,-310r-206,-331r242,0r74,131r74,-131r242,0","w":640},"z":{"d":"588,0r-568,0r231,-441r-238,0r0,-199r568,0r-231,442r238,0r0,198","w":600},"\u00a0":{"w":200},"\u00a1":{"d":"17,195r47,-535r219,0r46,535r-312,0xm173,-360v-73,0,-143,-49,-143,-116v0,-67,71,-116,143,-116v71,0,144,49,144,116v0,67,-73,116,-144,116","w":343},"\u00a2":{"d":"509,-455r-226,0v-24,41,-24,97,0,140r226,0r0,193r-107,0r0,122r-224,0r0,-122r-51,0v-138,-144,-137,-383,0,-527r51,0r0,-122r224,0r0,122r107,0r0,194","w":533},"\u00a3":{"d":"461,-506v-57,-9,-109,-2,-154,18r0,77r78,0r0,111r-78,0r0,62r201,0r-75,238r-365,0r0,-300r-43,0r0,-111r43,0r0,-273v97,-76,210,-111,341,-105","w":532},"\u00a4":{"d":"666,-767v-257,-66,-491,93,-533,298r-51,0r-24,68r65,0r0,31r-40,0r-25,68r75,0v42,197,254,353,501,305r0,-283v-57,52,-155,41,-194,-22r61,0r24,-68r-107,0v-1,-11,1,-22,4,-31r114,0r24,-68r-90,0v29,-19,58,-27,98,-23","w":723},"\u00a5":{"d":"222,-475r-103,0r0,69r146,0r19,30r-165,0r0,69r167,0r0,307r265,0r0,-307r167,0r0,-69r-165,0r20,-30r145,0r0,-69r-103,0r184,-296r-291,0r-89,158r-90,-158r-291,0","w":837},"\u00a8":{"d":"321,-830v-44,0,-85,35,-85,79v0,43,41,83,84,83v44,0,88,-39,88,-83v0,-47,-40,-79,-87,-79xm115,-831v-44,0,-85,35,-85,79v0,44,40,83,84,83v44,0,87,-39,87,-83v0,-46,-41,-79,-86,-79","w":438},"\u00aa":{"d":"29,-363v6,-212,130,-386,337,-384r61,0r0,384r-130,0r0,-19r-79,0r0,-129r79,0r0,-91v-83,41,-126,121,-129,239r-139,0","w":453},"\u00ab":{"d":"486,-173r-181,0r-88,-207r88,-217r181,0r-89,217xm286,-173r-181,0r-88,-207r88,-217r181,0r-89,217","w":502},"\u00ad":{"d":"278,-292r-264,0r0,-206r264,0r0,206","w":292},"\u00b4":{"d":"20,-665r160,0r248,-206r-260,0","w":448},"\u00b7":{"d":"158,-505v71,0,144,49,144,116v0,67,-73,116,-144,116v-71,0,-144,-49,-144,-116v0,-67,73,-116,144,-116","w":316},"\u00b8":{"d":"345,86v0,-89,-77,-165,-166,-165v-45,0,-84,16,-117,48r99,99v16,-20,45,-2,45,19v0,20,-29,38,-45,18r-99,98v33,33,72,49,117,49v88,0,166,-78,166,-166","w":448},"\u00ba":{"d":"244,-775v116,0,220,95,220,210v0,115,-104,211,-220,211v-116,0,-221,-97,-221,-211v0,-115,105,-210,221,-210xm244,-491v36,0,67,-31,67,-66v0,-35,-31,-65,-67,-65v-36,0,-67,30,-67,65v0,35,31,66,67,66","w":486},"\u00bb":{"d":"9,-173r181,0r88,-207r-88,-217r-181,0r89,217xm209,-173r181,0r88,-207r-88,-217r-181,0r89,217","w":502},"\u00bf":{"d":"261,195v-127,4,-236,-112,-236,-239v0,-132,112,-247,253,-238r0,-56r229,0v15,29,23,60,23,93v2,103,-84,192,-179,199r0,2r219,0r0,239r-309,0xm386,-358v-72,0,-144,-49,-144,-116v0,-67,72,-116,144,-116v71,0,144,49,144,116v0,67,-73,116,-144,116","w":574},"\u00c0":{"d":"750,-795r-160,0r-248,-206r260,0xm554,-481v-159,78,-254,251,-260,481r-279,0v9,-217,68,-395,177,-535v123,-157,289,-236,500,-236r122,0r0,771r-260,0r0,-37r-160,0r0,-260r160,0r0,-184"},"\u00c1":{"d":"589,-802r160,0r248,-206r-260,0xm554,-481v-159,78,-254,251,-260,481r-279,0v9,-217,68,-395,177,-535v123,-157,289,-236,500,-236r122,0r0,771r-260,0r0,-37r-160,0r0,-260r160,0r0,-184"},"\u00c2":{"d":"823,-801r-180,0r-34,-38r-39,38r-165,0r204,-206xm554,-481v-159,78,-254,251,-260,481r-279,0v9,-217,68,-395,177,-535v123,-157,289,-236,500,-236r122,0r0,771r-260,0r0,-37r-160,0r0,-260r160,0r0,-184"},"\u00c3":{"d":"650,-914v26,1,46,-21,46,-46r124,0v2,91,-78,173,-170,170v-31,0,-65,-12,-102,-36v-15,-10,-27,-15,-36,-15v-25,-1,-47,21,-46,46r-123,0v-3,-91,78,-173,169,-170v33,0,66,13,102,36v18,11,31,15,36,15xm554,-481v-159,78,-254,251,-260,481r-279,0v9,-217,68,-395,177,-535v123,-157,289,-236,500,-236r122,0r0,771r-260,0r0,-37r-160,0r0,-260r160,0r0,-184"},"\u00c4":{"d":"708,-959v-44,0,-85,35,-85,79v0,43,41,83,84,83v44,0,88,-39,88,-83v0,-47,-40,-79,-87,-79xm502,-960v-44,0,-85,35,-85,79v0,44,40,83,84,83v44,0,87,-39,87,-83v0,-46,-41,-79,-86,-79xm554,-481v-159,78,-254,251,-260,481r-279,0v9,-217,68,-395,177,-535v123,-157,289,-236,500,-236r122,0r0,771r-260,0r0,-37r-160,0r0,-260r160,0r0,-184"},"\u00c5":{"d":"554,-481v-159,78,-254,251,-260,481r-279,0v9,-217,68,-395,177,-535v123,-157,289,-236,500,-236r122,0r0,771r-260,0r0,-37r-160,0r0,-260r160,0r0,-184xm636,-1111v-90,0,-169,78,-169,168v0,90,79,169,169,169v90,0,168,-79,168,-169v0,-90,-77,-168,-168,-168xm636,-1010v-36,0,-67,31,-67,67v0,36,31,67,67,67v36,0,67,-31,67,-67v0,-36,-31,-67,-67,-67"},"\u00c6":{"d":"1055,-288r-206,0r0,-194r206,0r0,194xm548,-478v-155,80,-248,251,-254,478r-279,0v9,-217,69,-395,178,-535v122,-157,288,-236,499,-236r472,0r0,239r-350,0r0,294r350,0r0,238r-616,0r0,-37r-153,0r0,-260r153,0r0,-181","w":1178},"\u00c7":{"d":"555,86v0,-89,-77,-165,-166,-165v-45,0,-84,16,-117,48r99,99v16,-20,45,-2,45,19v0,20,-29,38,-45,18r-99,98v33,33,72,49,117,49v88,0,166,-78,166,-166xm657,1r-490,-1v-200,-210,-200,-561,0,-771r490,0r0,239r-325,0v-49,89,-50,207,1,294r324,0r0,239","w":673},"\u00c8":{"d":"490,-791r-160,0r-248,-206r260,0xm522,-288r-206,0r0,-194r206,0r0,194xm630,0r-615,0r0,-771r615,0r0,239r-350,0r0,294r350,0r0,238","w":644},"\u00c9":{"d":"226,-800r160,0r248,-206r-260,0xm522,-288r-206,0r0,-194r206,0r0,194xm630,0r-615,0r0,-771r615,0r0,239r-350,0r0,294r350,0r0,238","w":644},"\u00ca":{"d":"551,-799r-180,0r-34,-38r-39,38r-165,0r204,-206xm522,-288r-206,0r0,-194r206,0r0,194xm630,0r-615,0r0,-771r615,0r0,239r-350,0r0,294r350,0r0,238","w":644},"\u00cb":{"d":"432,-965v-44,0,-85,35,-85,79v0,43,41,83,84,83v44,0,88,-39,88,-83v0,-47,-40,-79,-87,-79xm226,-966v-44,0,-85,35,-85,79v0,44,40,83,84,83v44,0,87,-39,87,-83v0,-46,-41,-79,-86,-79xm522,-288r-206,0r0,-194r206,0r0,194xm630,0r-615,0r0,-771r615,0r0,239r-350,0r0,294r350,0r0,238","w":644},"\u00cc":{"d":"276,-797r-160,0r-248,-206r260,0xm282,0r-266,0r0,-771r266,0r0,771","w":297},"\u00cd":{"d":"62,-801r160,0r248,-206r-260,0xm282,0r-266,0r0,-771r266,0r0,771","w":297},"\u00ce":{"d":"365,-799r-180,0r-34,-38r-39,38r-165,0r204,-206xm282,0r-266,0r0,-771r266,0r0,771","w":297},"\u00cf":{"d":"259,-968v-44,0,-85,35,-85,79v0,43,41,83,84,83v44,0,88,-39,88,-83v0,-47,-40,-79,-87,-79xm53,-969v-44,0,-85,35,-85,79v0,44,40,83,84,83v44,0,87,-39,87,-83v0,-46,-41,-79,-86,-79xm282,0r-266,0r0,-771r266,0r0,771","w":297},"\u00d0":{"d":"394,-771v205,-6,395,180,395,386v0,206,-180,387,-386,386r-332,-1r0,-350r-55,0r0,-70r55,0r0,-351r323,0xm400,-238v79,2,147,-68,147,-147v0,-79,-69,-146,-147,-146r-81,0r0,111r85,0r0,70r-85,0r0,111","w":804},"\u00d1":{"d":"488,-918v26,1,46,-21,46,-46r124,0v2,91,-78,173,-170,170v-31,0,-65,-12,-102,-36v-15,-10,-27,-15,-36,-15v-25,-1,-47,21,-46,46r-123,0v-3,-91,78,-173,169,-170v33,0,66,13,102,36v18,11,31,15,36,15xm814,0r-260,0r0,-62v-26,-190,-131,-347,-279,-419r0,481r-260,0r0,-770r122,-1v164,-1,303,48,417,148r0,-148r260,0r0,771","w":828},"\u00d2":{"d":"528,-831r-160,0r-248,-206r260,0xm460,-810v234,0,443,193,443,423v0,230,-209,423,-443,423v-234,0,-443,-193,-443,-423v0,-230,209,-423,443,-423xm460,-240v72,0,135,-60,135,-131v0,-71,-63,-131,-135,-131v-72,0,-135,60,-135,131v0,71,63,131,135,131","w":919},"\u00d3":{"d":"372,-831r160,0r248,-206r-260,0xm460,-810v234,0,443,193,443,423v0,230,-209,423,-443,423v-234,0,-443,-193,-443,-423v0,-230,209,-423,443,-423xm460,-240v72,0,135,-60,135,-131v0,-71,-63,-131,-135,-131v-72,0,-135,60,-135,131v0,71,63,131,135,131","w":919},"\u00d4":{"d":"671,-833r-180,0r-34,-38r-39,38r-165,0r204,-206xm460,-810v234,0,443,193,443,423v0,230,-209,423,-443,423v-234,0,-443,-193,-443,-423v0,-230,209,-423,443,-423xm460,-240v72,0,135,-60,135,-131v0,-71,-63,-131,-135,-131v-72,0,-135,60,-135,131v0,71,63,131,135,131","w":919},"\u00d5":{"d":"528,-954v26,1,46,-21,46,-46r124,0v2,91,-78,173,-170,170v-31,0,-65,-12,-102,-36v-15,-10,-27,-15,-36,-15v-25,-1,-47,21,-46,46r-123,0v-3,-91,78,-173,169,-170v33,0,66,13,102,36v18,11,31,15,36,15xm460,-810v234,0,443,193,443,423v0,230,-209,423,-443,423v-234,0,-443,-193,-443,-423v0,-230,209,-423,443,-423xm460,-240v72,0,135,-60,135,-131v0,-71,-63,-131,-135,-131v-72,0,-135,60,-135,131v0,71,63,131,135,131","w":919},"\u00d6":{"d":"553,-991v-44,0,-85,35,-85,79v0,43,41,83,84,83v44,0,88,-39,88,-83v0,-47,-40,-79,-87,-79xm347,-992v-44,0,-85,35,-85,79v0,44,40,83,84,83v44,0,87,-39,87,-83v0,-46,-41,-79,-86,-79xm460,-810v234,0,443,193,443,423v0,230,-209,423,-443,423v-234,0,-443,-193,-443,-423v0,-230,209,-423,443,-423xm460,-240v72,0,135,-60,135,-131v0,-71,-63,-131,-135,-131v-72,0,-135,60,-135,131v0,71,63,131,135,131","w":919},"\u00d8":{"d":"33,-387v0,-231,208,-423,443,-423v96,0,183,27,261,82r51,-51r160,0r-127,127v65,78,98,166,98,265v0,230,-209,423,-443,423v-97,0,-185,-27,-262,-82r-50,51r-161,0r128,-127v-65,-77,-98,-165,-98,-265xm420,-252v109,50,234,-61,177,-176xm507,-498v-100,-22,-186,58,-162,161","w":950},"\u00d9":{"d":"466,-795r-160,0r-248,-206r260,0xm332,-248v28,0,53,-24,52,-52r0,-471r262,0r0,486v5,167,-147,313,-314,313v-168,0,-314,-145,-314,-313r0,-486r262,0r0,471v-1,29,23,52,52,52","w":663},"\u00da":{"d":"244,-799r160,0r248,-206r-260,0xm332,-248v28,0,53,-24,52,-52r0,-471r262,0r0,486v5,167,-147,313,-314,313v-168,0,-314,-145,-314,-313r0,-486r262,0r0,471v-1,29,23,52,52,52","w":663},"\u00db":{"d":"553,-799r-180,0r-34,-38r-39,38r-165,0r204,-206xm332,-248v28,0,53,-24,52,-52r0,-471r262,0r0,486v5,167,-147,313,-314,313v-168,0,-314,-145,-314,-313r0,-486r262,0r0,471v-1,29,23,52,52,52","w":663},"\u00dc":{"d":"433,-960v-44,0,-85,35,-85,79v0,43,41,83,84,83v44,0,88,-39,88,-83v0,-47,-40,-79,-87,-79xm227,-961v-44,0,-85,35,-85,79v0,44,40,83,84,83v44,0,87,-39,87,-83v0,-46,-41,-79,-86,-79xm332,-248v28,0,53,-24,52,-52r0,-471r262,0r0,486v5,167,-147,313,-314,313v-168,0,-314,-145,-314,-313r0,-486r262,0r0,471v-1,29,23,52,52,52","w":663},"\u00dd":{"d":"300,-797r160,0r248,-206r-260,0xm766,-771r-248,399r0,373r-265,0r0,-373r-248,-399r291,0r90,158r89,-158r291,0","w":771},"\u00de":{"d":"412,-673v182,-3,324,106,324,281v0,175,-142,283,-324,280r-132,0r0,113r-265,0r0,-772r265,0r0,98r132,0xm485,-392v0,-30,-17,-45,-52,-45r-153,0r0,90r153,0v35,0,52,-15,52,-45","w":750},"\u00df":{"d":"556,-442v133,49,220,289,125,442r-666,0r0,-198r174,0v-136,-46,-222,-288,-129,-442r655,0r0,198r-159,0xm351,-356v-11,-29,-19,-58,-22,-86r-79,0v37,15,70,44,101,86xm495,-198v-40,-15,-75,-44,-106,-87v11,27,19,56,22,87r84,0","w":735},"\u00e0":{"d":"588,-665r-160,0r-248,-206r260,0xm460,-399v-132,65,-209,209,-215,399r-232,0v7,-179,56,-327,147,-444v102,-131,240,-196,415,-196r101,0r0,640r-216,0r0,-31r-132,0r0,-216r132,0r0,-152","w":688},"\u00e1":{"d":"330,-665r160,0r248,-206r-260,0xm460,-399v-132,65,-209,209,-215,399r-232,0v7,-179,56,-327,147,-444v102,-131,240,-196,415,-196r101,0r0,640r-216,0r0,-31r-132,0r0,-216r132,0r0,-152","w":688},"\u00e2":{"d":"677,-669r-180,0r-34,-38r-39,38r-165,0r204,-206xm460,-399v-132,65,-209,209,-215,399r-232,0v7,-179,56,-327,147,-444v102,-131,240,-196,415,-196r101,0r0,640r-216,0r0,-31r-132,0r0,-216r132,0r0,-152","w":688},"\u00e3":{"d":"508,-788v26,1,46,-21,46,-46r124,0v2,91,-78,173,-170,170v-31,0,-65,-12,-102,-36v-15,-10,-27,-15,-36,-15v-25,-1,-47,21,-46,46r-123,0v-3,-91,78,-173,169,-170v33,0,66,13,102,36v18,11,31,15,36,15xm460,-399v-132,65,-209,209,-215,399r-232,0v7,-179,56,-327,147,-444v102,-131,240,-196,415,-196r101,0r0,640r-216,0r0,-31r-132,0r0,-216r132,0r0,-152","w":688},"\u00e4":{"d":"571,-830v-44,0,-85,35,-85,79v0,43,41,83,84,83v44,0,88,-39,88,-83v0,-47,-40,-79,-87,-79xm365,-831v-44,0,-85,35,-85,79v0,44,40,83,84,83v44,0,87,-39,87,-83v0,-46,-41,-79,-86,-79xm460,-399v-132,65,-209,209,-215,399r-232,0v7,-179,56,-327,147,-444v102,-131,240,-196,415,-196r101,0r0,640r-216,0r0,-31r-132,0r0,-216r132,0r0,-152","w":688},"\u00e5":{"d":"460,-399v-132,65,-209,209,-215,399r-232,0v7,-179,56,-327,147,-444v102,-131,240,-196,415,-196r101,0r0,640r-216,0r0,-31r-132,0r0,-216r132,0r0,-152xm506,-989v-90,0,-169,78,-169,168v0,90,79,169,169,169v90,0,168,-79,168,-169v0,-90,-77,-168,-168,-168xm506,-888v-36,0,-67,31,-67,67v0,36,31,67,67,67v36,0,67,-31,67,-67v0,-36,-31,-67,-67,-67","w":688},"\u00e6":{"d":"878,-239r-171,0r0,-161r171,0r0,161xm457,-397v-128,66,-206,209,-211,397r-232,0v8,-179,57,-327,148,-444v102,-131,240,-196,414,-196r392,0r0,198r-291,0r0,244r291,0r0,198r-511,0r0,-31r-127,0r0,-216r127,0r0,-150","w":982},"\u00e7":{"d":"465,86v0,-89,-77,-165,-166,-165v-45,0,-84,16,-117,48r99,99v16,-20,45,-2,45,19v0,20,-29,38,-45,18r-99,98v33,33,72,49,117,49v88,0,166,-78,166,-166xm545,1r-406,-1v-167,-173,-167,-467,0,-640r406,0r0,198r-269,0v-41,74,-41,171,0,244r269,0r0,199","w":559},"\u00e8":{"d":"428,-665r-160,0r-248,-206r260,0xm434,-239r-171,0r0,-161r171,0r0,161xm523,0r-510,0r0,-640r510,0r0,198r-290,0r0,244r290,0r0,198","w":535},"\u00e9":{"d":"180,-665r160,0r248,-206r-260,0xm434,-239r-171,0r0,-161r171,0r0,161xm523,0r-510,0r0,-640r510,0r0,198r-290,0r0,244r290,0r0,198","w":535},"\u00ea":{"d":"477,-669r-180,0r-34,-38r-39,38r-165,0r204,-206xm434,-239r-171,0r0,-161r171,0r0,161xm523,0r-510,0r0,-640r510,0r0,198r-290,0r0,244r290,0r0,198","w":535},"\u00eb":{"d":"381,-830v-44,0,-85,35,-85,79v0,43,41,83,84,83v44,0,88,-39,88,-83v0,-47,-40,-79,-87,-79xm175,-831v-44,0,-85,35,-85,79v0,44,40,83,84,83v44,0,87,-39,87,-83v0,-46,-41,-79,-86,-79xm434,-239r-171,0r0,-161r171,0r0,161xm523,0r-510,0r0,-640r510,0r0,198r-290,0r0,244r290,0r0,198","w":535},"\u00ec":{"d":"228,-665r-160,0r-248,-206r260,0xm234,0r-220,0r0,-640r220,0r0,640","w":247},"\u00ed":{"d":"40,-665r160,0r248,-206r-260,0xm234,0r-220,0r0,-640r220,0r0,640","w":247},"\u00ee":{"d":"337,-669r-180,0r-34,-38r-39,38r-165,0r204,-206xm234,0r-220,0r0,-640r220,0r0,640","w":247},"\u00ef":{"d":"231,-832v-44,0,-85,35,-85,79v0,43,41,83,84,83v44,0,88,-39,88,-83v0,-47,-40,-79,-87,-79xm25,-833v-44,0,-85,35,-85,79v0,44,40,83,84,83v44,0,87,-39,87,-83v0,-46,-41,-79,-86,-79xm234,0r-220,0r0,-640r220,0r0,640","w":247},"\u00f0":{"d":"327,-640v170,-5,328,149,328,320v0,171,-149,322,-320,321r-276,-1r0,-291r-46,0r0,-58r46,0r0,-291r268,0xm332,-198v66,2,122,-56,122,-122v0,-65,-57,-121,-122,-121r-67,0r0,92r70,0r0,58r-70,0r0,93r67,0","w":668},"\u00f1":{"d":"408,-788v26,1,46,-21,46,-46r124,0v2,91,-78,173,-170,170v-31,0,-65,-12,-102,-36v-15,-10,-27,-15,-36,-15v-25,-1,-47,21,-46,46r-123,0v-3,-91,78,-173,169,-170v33,0,66,13,102,36v18,11,31,15,36,15xm675,0r-216,0r0,-51v-20,-158,-109,-288,-231,-348r0,399r-216,0r0,-639r101,-1v135,-1,251,40,346,123r0,-123r216,0r0,640","w":687},"\u00f2":{"d":"468,-695r-160,0r-248,-206r260,0xm382,-672v194,0,367,160,367,351v0,191,-174,351,-367,351v-194,0,-368,-160,-368,-351v0,-191,174,-351,368,-351xm382,-199v59,0,112,-50,112,-109v0,-59,-53,-109,-112,-109v-59,0,-112,50,-112,109v0,59,53,109,112,109","w":763},"\u00f3":{"d":"290,-695r160,0r248,-206r-260,0xm382,-672v194,0,367,160,367,351v0,191,-174,351,-367,351v-194,0,-368,-160,-368,-351v0,-191,174,-351,368,-351xm382,-199v59,0,112,-50,112,-109v0,-59,-53,-109,-112,-109v-59,0,-112,50,-112,109v0,59,53,109,112,109","w":763},"\u00f4":{"d":"591,-689r-180,0r-34,-38r-39,38r-165,0r204,-206xm382,-672v194,0,367,160,367,351v0,191,-174,351,-367,351v-194,0,-368,-160,-368,-351v0,-191,174,-351,368,-351xm382,-199v59,0,112,-50,112,-109v0,-59,-53,-109,-112,-109v-59,0,-112,50,-112,109v0,59,53,109,112,109","w":763},"\u00f5":{"d":"458,-818v26,1,46,-21,46,-46r124,0v2,91,-78,173,-170,170v-31,0,-65,-12,-102,-36v-15,-10,-27,-15,-36,-15v-25,-1,-47,21,-46,46r-123,0v-3,-91,78,-173,169,-170v33,0,66,13,102,36v18,11,31,15,36,15xm382,-672v194,0,367,160,367,351v0,191,-174,351,-367,351v-194,0,-368,-160,-368,-351v0,-191,174,-351,368,-351xm382,-199v59,0,112,-50,112,-109v0,-59,-53,-109,-112,-109v-59,0,-112,50,-112,109v0,59,53,109,112,109","w":763},"\u00f6":{"d":"485,-852v-44,0,-85,35,-85,79v0,43,41,83,84,83v44,0,88,-39,88,-83v0,-47,-40,-79,-87,-79xm279,-853v-44,0,-85,35,-85,79v0,44,40,83,84,83v44,0,87,-39,87,-83v0,-46,-41,-79,-86,-79xm382,-672v194,0,367,160,367,351v0,191,-174,351,-367,351v-194,0,-368,-160,-368,-351v0,-191,174,-351,368,-351xm382,-199v59,0,112,-50,112,-109v0,-59,-53,-109,-112,-109v-59,0,-112,50,-112,109v0,59,53,109,112,109","w":763},"\u00f8":{"d":"23,-321v0,-191,174,-351,368,-351v80,0,152,23,216,68r43,-43r132,0r-105,106v54,63,81,137,81,220v0,191,-174,351,-367,351v-80,0,-153,-23,-218,-68r-41,42r-134,0r106,-105v-54,-65,-81,-138,-81,-220xm344,-209v92,42,195,-52,147,-146xm416,-413v-81,-20,-153,48,-134,133","w":780},"\u00f9":{"d":"388,-665r-160,0r-248,-206r260,0xm275,-206v23,0,44,-20,43,-43r0,-391r218,0r0,403v4,139,-122,260,-261,260v-140,0,-260,-121,-260,-260r0,-403r217,0r0,391v-1,23,20,43,43,43","w":550},"\u00fa":{"d":"180,-665r160,0r248,-206r-260,0xm275,-206v23,0,44,-20,43,-43r0,-391r218,0r0,403v4,139,-122,260,-261,260v-140,0,-260,-121,-260,-260r0,-403r217,0r0,391v-1,23,20,43,43,43","w":550},"\u00fb":{"d":"493,-673r-180,0r-34,-38r-39,38r-165,0r204,-206xm275,-206v23,0,44,-20,43,-43r0,-391r218,0r0,403v4,139,-122,260,-261,260v-140,0,-260,-121,-260,-260r0,-403r217,0r0,391v-1,23,20,43,43,43","w":550},"\u00fc":{"d":"381,-828v-44,0,-85,35,-85,79v0,43,41,83,84,83v44,0,88,-39,88,-83v0,-47,-40,-79,-87,-79xm175,-829v-44,0,-85,35,-85,79v0,44,40,83,84,83v44,0,87,-39,87,-83v0,-46,-41,-79,-86,-79xm275,-206v23,0,44,-20,43,-43r0,-391r218,0r0,403v4,139,-122,260,-261,260v-140,0,-260,-121,-260,-260r0,-403r217,0r0,391v-1,23,20,43,43,43","w":550},"\u00fd":{"d":"230,-665r160,0r248,-206r-260,0xm636,-640r-206,331r0,310r-220,0r0,-310r-206,-331r242,0r74,131r74,-131r242,0","w":640},"\u00fe":{"d":"343,-559v152,-2,269,88,269,234v0,144,-117,235,-269,232r-109,0r0,94r-220,0r0,-641r220,0r0,81r109,0xm404,-325v0,-25,-14,-38,-43,-38r-127,0r0,75r127,0v29,0,43,-12,43,-37","w":626},"\u00ff":{"d":"423,-832v-44,0,-85,35,-85,79v0,43,41,83,84,83v44,0,88,-39,88,-83v0,-47,-40,-79,-87,-79xm217,-833v-44,0,-85,35,-85,79v0,44,40,83,84,83v44,0,87,-39,87,-83v0,-46,-41,-79,-86,-79xm636,-640r-206,331r0,310r-220,0r0,-310r-206,-331r242,0r74,131r74,-131r242,0","w":640},"\u0152":{"d":"1120,-286r-206,0r0,-194r206,0r0,194xm27,-383v0,-230,209,-423,443,-423v64,0,125,12,182,37r577,0r0,240r-351,0r0,293r351,0r0,238r-576,0v-57,25,-118,38,-183,38v-234,0,-443,-193,-443,-423xm470,-236v72,0,135,-60,135,-131v0,-71,-63,-131,-135,-131v-72,0,-135,60,-135,131v0,71,63,131,135,131","w":1247},"\u0153":{"d":"930,-237r-171,0r0,-161r171,0r0,161xm22,-318v0,-191,174,-351,368,-351v53,0,104,10,151,31r479,0r0,199r-291,0r0,243r291,0r0,198r-478,0v-47,21,-98,31,-152,31v-194,0,-368,-160,-368,-351xm390,-196v59,0,112,-50,112,-109v0,-58,-53,-108,-112,-108v-59,0,-112,50,-112,108v0,59,53,109,112,109","w":1042},"\u0178":{"d":"486,-958v-44,0,-85,35,-85,79v0,43,41,83,84,83v44,0,88,-39,88,-83v0,-47,-40,-79,-87,-79xm280,-959v-44,0,-85,35,-85,79v0,44,40,83,84,83v44,0,87,-39,87,-83v0,-46,-41,-79,-86,-79xm766,-771r-248,399r0,373r-265,0r0,-373r-248,-399r291,0r90,158r89,-158r291,0","w":771},"\u02c6":{"d":"447,-669r-180,0r-34,-38r-39,38r-165,0r204,-206","w":471},"\u02dc":{"d":"328,-788v26,1,46,-21,46,-46r124,0v2,91,-78,173,-170,170v-31,0,-65,-12,-102,-36v-15,-10,-27,-15,-36,-15v-25,-1,-47,21,-46,46r-123,0v-3,-91,78,-173,169,-170v33,0,66,13,102,36v18,11,31,15,36,15","w":519},"\u2013":{"d":"487,-292r-474,0r0,-206r474,0r0,206xm13,-292r0,-206r0,206","w":500},"\u2014":{"d":"982,-292r-964,0r0,-206r964,0r0,206","w":1000},"\u2018":{"d":"133,-505v-59,0,-108,-56,-108,-116v0,-84,71,-173,147,-172v13,0,24,2,35,7r-20,64v36,23,54,56,54,101v0,61,-48,116,-108,116","w":258},"\u2019":{"d":"129,-783v59,0,108,56,108,116v0,84,-71,173,-147,172v-13,0,-24,-2,-35,-7r20,-64v-36,-23,-54,-56,-54,-101v0,-61,48,-116,108,-116","w":258},"\u201a":{"d":"129,-218v59,0,108,56,108,116v0,84,-71,173,-147,172v-13,0,-24,-2,-35,-7r20,-64v-36,-23,-54,-56,-54,-101v0,-61,48,-116,108,-116","w":258},"\u201c":{"d":"124,-502v-60,0,-108,-55,-108,-116v0,-84,70,-173,146,-172v13,0,25,2,36,7r-20,64v36,23,54,56,54,101v0,61,-49,116,-108,116xm354,-502v-60,0,-108,-55,-108,-116v0,-84,70,-173,146,-172v13,0,25,2,36,7r-20,64v36,23,54,56,54,101v0,61,-49,116,-108,116","w":471},"\u201d":{"d":"351,-780v59,0,108,56,108,116v0,84,-71,173,-147,172v-13,0,-24,-2,-35,-7r20,-64v-36,-23,-54,-56,-54,-101v0,-61,48,-116,108,-116xm121,-780v59,0,108,56,108,116v0,84,-71,173,-147,172v-13,0,-24,-2,-35,-7r20,-64v-36,-23,-54,-56,-54,-101v0,-61,48,-116,108,-116","w":471},"\u201e":{"d":"351,-218v59,0,108,56,108,116v0,84,-72,173,-147,172v-13,0,-24,-2,-35,-7r20,-64v-36,-23,-54,-56,-54,-101v0,-61,48,-116,108,-116xm121,-218v59,0,108,56,108,116v0,84,-72,173,-147,172v-13,0,-24,-2,-35,-7r20,-64v-36,-23,-54,-56,-54,-101v0,-61,48,-116,108,-116","w":471},"\u2022":{"d":"193,-537v91,0,171,79,171,171v0,91,-80,171,-171,171v-92,0,-171,-80,-171,-171v0,-92,79,-171,171,-171","w":385},"\u2026":{"d":"826,-215v71,0,144,49,144,116v0,67,-73,116,-144,116v-72,0,-144,-49,-144,-116v0,-67,72,-116,144,-116xm502,-215v71,0,144,49,144,116v0,67,-73,116,-144,116v-72,0,-144,-49,-144,-116v0,-67,72,-116,144,-116xm175,-215v71,0,144,49,144,116v0,67,-73,116,-144,116v-72,0,-144,-49,-144,-116v0,-67,72,-116,144,-116","w":1000},"\u2039":{"d":"282,-173r-181,0r-88,-207r88,-217r181,0r-89,217","w":295},"\u203a":{"d":"13,-173r181,0r88,-207r-88,-217r-181,0r89,217","w":295}}});
